-0.5929548822270498,-0.07906444908878194,0.109359162889586,-1.0925978842431845,0.4593211251820862,0.0892476481714621,0.12823949423288433,0.018013648324461735,0.023482564104333598,-0.30467287156418316,0.576999805669626,0.1411745117734396,0.07937873301076545,-1.0865878429724531,0.03904061522206308,0.19805368813715796,0.0720750622210494,-0.06972765947366806,-0.719830923620364,0.10279433360866197,-0.44267438395227554,-0.5382119868676812,0.11116116032868555,0.10099630225439529,0.27719772065489645,0.693184538926521,-0.4092941609135844,0.16316379936713668
0.2757807858457454,0.042095182826141914,0.35357395529363495,0.6161804922262768,-0.5074456888223293,0.011241367506974095,-0.18196063011935465,-0.24216021451532838,-0.190690912450198,-0.17072018287484098,0.5107658810526778,0.923771667436919,0.05357084151441717,-0.5897716245654048,-0.1362091709986242,-0.5398393337307917,-0.014500320100858364,0.2535835027206658,-0.16972786344077187,0.16083631342982507,-0.5113520172977601,1.0708205801082011,-0.38173217375444435,-0.4488904699959262,0.4330448845343093,-0.5600475003747504,-0.3488742867474578,-0.17472245283329424
-0.16340490824910023,0.2617883982028376,-0.5843725491246949,-0.8746890708737578,0.4640733897683773,-0.33863343251153966,0.25381618344723395,0.15089017960058734,0.6665578031601702,-0.27286039010457186,-0.45046754933002736,0.09706943336341661,-0.34697669524080504,0.3363692541502435,0.3235700655139374,-0.46763481534290097,-0.22964550439946121,0.03313886300659411,0.1365762241109225,-0.13790222423766915,0.6216874809878304,-0.5723921027962877,0.46161068309866565,0.32926301750276554,0.3015388686674893,0.42040726823067237,0.4348287763246527,0.02431361589641514
0.1838514528063259,-0.6654193222258965,0.06475472666504946,-0.506288302631553,-0.29292354286616423,-0.006236279189882433,-0.33169852776478786,-0.38035169735605423,0.20916688058334468,-0.4306480034071789,-0.33607079370716925,0.23852521477970884,-0.0584021755035251,0.28933023747338543,-0.2753462724820584,-0.029346747088628878,0.22997375728122488,-0.3573034285558014,-0.051892618744478085,0.38382864100854236,0.21119878950572615,0.04221677885618291,0.2596248435791438,0.18914002283003495,-1.6651586187211218,-0.061194345167605066,0.22949689785659386,0.2922827927907304
-0.3276834784949208,-0.1077635170343903,0.2368886656122781,0.05311469370857088,0.29644180646591006,-0.8752555219526508,0.2038146436782176,1.244771976538924,-0.6260090319124711,0.3945145495714979,0.48621366557796486,0.6141620879640057,0.02579300011178943,0.917597450968178,0.18428586506093236,-0.19729019195502004,0.15806717975789508,-0.8660516074637735,-0.6863507702002977,-0.30382846958394194,-0.5768092728828356,-0.020152938795230724,-0.22222504774768925,0.2412575383594053,-0.1732352241283817,-0.38102554985488085,0.6293419295613509,0.17605329913140214
-0.3884454667179704,0.31801753070936895,1.8179626418002666,0.4182035579113464,0.12152471307738168,-0.2020767951549037,-0.6117154079571477,0.06905314419739765,-0.5644718587112079,0.33480678609527303,-0.2671748379145911,-0.3752360886472325,-0.3028184065978972,0.022201592473719865,-0.4595474709076715,-0.5415513937502473,0.5588209313393552,0.18640743282259167,0.7575172165325145,0.19563825001062152,0.546131852534501,0.007496539147173788,-0.3233545673709517,-0.27158063561947066,-0.28951658806612984,0.38064630571691277,-0.1708906976750704,0.32546863287213396
0.5617313087312337,0.18449397216627625,0.17758309068255437,-0.41155269676354606,-0.4215800081128271,-0.6550563157857401,-0.15393651773295114,0.11206500078433733,0.8395323788692962,-0.15862205009901717,0.16141302174175767,-0.38201265174348725,0.07200685738524268,0.1853389740109344,-0.12793145484548168,0.13399406838414452,-0.3476398604446028,0.12960045794299646,-0.0334690910661943,0.30904928575265156,-0.3405056914180331,-0.6485156146721143,-1.441684050677046,0.13116740284809744,0.25556704108239925,0.19100908840124547,0.17256385297756777,0.2949039013482941
0.13150208153656995,0.06171763913064723,0.07141298954592422,-0.05677080388378488,0.10144172574009681,0.06933879996050238,-0.5370668309606275,-0.4591096909358781,-0.11484634794286579,-0.5777840840166837,0.36500191865736503,0.3325472834303453,-0.15341023773928975,0.9220388646343523,1.0557153410043814,0.1648136823169519,0.3503512103793395,0.23675877689600894,-0.2671779579940466,-1.9154234746647754,-0.5055225452197862,-0.05980135232234011,0.11740241426753721,-0.005929273644789506,-0.11086683868382866,0.11077781261883025,-0.1408001148911567,0.6310097894338903
-0.6882817992113738,-0.21968051554353796,0.11457933094366142,0.32427741450927416,-1.0575600845118995,-0.4458405542767416,0.29986286090517056,-0.0836053319602665,0.8330414842978044,0.04449185087126522,0.20147726688922454,-0.31150081087097353,0.33802490644829325,0.08554207903326667,0.18998602033382306,0.40999795556647856,0.3522916994311742,0.19598297432415257,0.0035989276910626143,-0.19457592889984202,-0.17163580055172845,0.5071468522234225,0.19410400725193133,0.6060621567484016,0.35244725565658774,-0.3910390134823957,0.123920039735507,-0.17706970527178878
0.4089199013099508,0.3472945868108081,0.3422027540406728,-0.1277345841725897,-0.28334365317139915,0.16828280574568574,0.10968946948072535,0.30540470403173275,0.676246137287435,0.35731673287254456,-0.6134000223227675,-0.4303943592999807,0.07090749350164505,-0.21439818088576812,0.11255427247974367,0.019767309530216503,0.19391690539205336,-0.5044247004125942,-0.10384746872421195,-0.1654149536286626,-0.14479076206240607,-0.49760012658602876,0.19907977131977125,0.05923185501919028,0.24599823138781338,-0.6439333774274212,-1.746175501949514,0.7610867074774536
0.44131624122444896,-0.3587247405441723,0.3232361273853823,-0.3786652383478467,0.850161867388595,-0.12994229751592276,1.0287558835958135,0.06503749823532391,-0.6146989295420201,0.07977189102803493,-0.02331442292288506,0.009001293785462711,-0.6150066288370274,-0.08422837855720004,-0.5560448405348404,0.05304474004596109,0.3652008076691883,0.1520955673323113,-0.23272342219545397,0.22793141493471783,-0.16626216212110095,-0.4310780261950879,-0.05585319112064458,0.05684338870788502,-0.15764605136131352,0.1497588799359142,-0.2715167988750665,-0.2370299165582284
0.2657415645835853,0.7922592871465929,0.09774558953009246,0.6668183649084544,-0.07009234293171393,-0.9004684095558803,-0.5066102038849215,-0.15880413050243747,-0.7488257179200242,-1.196189222952163,-0.2740556703265563,0.3034130255793975,-0.06508718219821165,0.3719906406838265,-0.3783528078949644,0.6969619508767453,0.02546795969085614,-0.5171051730808045,0.7194073007418912,0.20822436720859888,0.24304428217404586,0.6087479405945087,0.5488371183579621,0.7151845851485081,-0.18603358774283832,0.051651624028443636,-0.16893408454775216,-0.08266436042049134
0.2660984169756765,-0.06689395723452526,0.2558278272853142,0.18185458248131864,-0.3756319248503282,-0.058282970776138816,-0.23158753970808416,0.47787323387545433,0.07864117110134286,-0.4499379816468122,1.569973266730562,-0.5599315846717721,0.49148571285022075,0.5246685147841014,-0.21859121602281875,-0.7191020718147643,-0.38438086904800917,0.35282397577000346,-0.262995417677397,0.21835853845788566,-0.623514462317079,-0.009104099512458571,0.646558845306457,0.08630616143562865,-0.15745990660759698,7.566624991773275e-05,-0.29276252626220195,-0.5665255372255811
-0.037516131588315724,-0.47943858359346203,0.7432098370925045,-0.6318347937191664,0.5249538518514353,-0.6403561930809676,0.3826132149139343,-0.2975417153508556,-0.08763089440463868,0.5534813358276678,-0.09393135854007484,0.0837191943339246,0.14165167938890852,0.8976706961058767,0.3136173452052169,0.41342861373961953,-0.19832993404238722,0.13190108559897662,-0.4903878315952331,0.04054588169094984,1.5221898597024452,0.0232373428205038,-0.22176813646208923,0.03532558001453452,0.28931262052869455,0.3972814698006225,-0.33986590313857856,-0.5499136449944891
0.7111234423981191,-0.01605539155716052,-0.11774241419542736,0.10500713814032787,-0.0472028491205542,-0.18712982898398997,0.281961815862181,-0.2823739268262241,0.08533386392843814,0.17353457244377463,0.4799416512643328,0.5827717423415424,-0.3737887955905373,0.17003637628160023,-0.8017181964978909,-0.2534892990025024,-0.6793688455423635,0.02091794172749391,-0.7703370424082285,-0.26363626442850546,0.2935033606201815,0.23981141043544368,-0.16973072668854935,-0.620943365603569,-0.5136777024693339,0.02200080614440466,0.4463897218156965,0.559177793115827
-0.21705795864203184,-0.5322318207966584,0.2185631633145766,-0.2796591076691569,0.46177923207797056,0.36090854747814033,0.032719702626365005,-0.3959509152202735,-0.06771213299926374,-0.8556045264260401,0.033489233647697444,0.28421523579559427,-0.3804192834101399,-0.06625425887912754,-0.26710312592557317,-0.4737132190632718,-0.23431974537853592,0.20316435267002747,0.27047128475473026,0.2457565438986477,0.3326738381588652,0.3396610388578304,-0.4127867724140805,0.001557793713359855,0.3002396482883227,-0.18651012742456818,-0.08577257126758826,0.20163973562855203
0.4968951072594883,0.17856726934024192,-0.12216810168730326,0.47092242729306527,-0.0864326255393179,-0.2872747274709587,0.1648501804277519,-0.09021166575003,0.3941547821007432,0.29514144171620926,0.380962427438479,0.2994007124227312,-0.12673798020571814,0.47435645392398823,0.6616505123515976,0.060696018209395144,0.2056419269545891,-0.35423152086396764,-0.20676593680841454,0.09506095934693924,-0.2350349954602348,0.3935854932396816,0.14125484486727086,0.22760294682901963,-0.4517443885314116,-0.5754494702234306,0.6182493875817043,0.3907771668842292
-0.5039723532931166,-0.1091414968877322,0.26435277010015285,0.06594984778825708,0.19994177879447475,-0.17573388575384624,-0.0011517689328061427,-0.0014222160596839772,-0.05455072068519413,0.028485019776670395,-0.120899214966809,-0.24613020421606832,-0.20111186129087363,0.18687308439547062,-0.46677062424711696,-0.4359957291731569,-0.7346423375572994,0.6022890249881757,0.05326862337365041,0.39362318381452743,0.2290564774531647,-0.12167095310683712,1.1351495269992051,-0.5702922784660464,1.1502368703960673,-0.09231253067156119,-0.20564439342636656,-0.44760535761585246
-0.05512566763648818,0.21624280798604387,-0.97257022011205,0.08496724825156617,-0.209815991535014,-0.17220068039043776,-0.248951934431928,-0.06050851165214797,-0.4744585792968877,-0.5069635751851268,-0.19784890386684453,0.05091495391924005,-0.051742743656371014,-0.31496222196953727,0.2007370105101574,-0.11690994950779224,0.14515317050288074,0.8707582527459692,0.2731008033440747,0.8847894837081961,0.44453225070580876,-0.2034920736271145,0.5662635939212116,-0.4421201418821377,0.8278510185862878,0.914625824834273,-0.36646693166507666,-0.6852899322771225
0.13008398444848493,-0.1291565677040864,-0.32702004904079524,-0.17296827131113537,0.20073912308968914,-0.10037891957854041,-0.4385544901519893,-0.3835427749483195,0.12169172575785518,-0.11118264176299819,0.5233092584641048,0.8281874048357564,-0.32037834645866664,-0.6833823334838991,-0.19873791494650025,0.28340802883743604,-0.22481143137784285,0.10770594266412215,-0.002228724023084428,-0.42456570621135836,-0.04976857788631583,-0.858606671451493,-0.914831879763219,0.3889411334945775,0.1816326644255061,0.29168141296922667,0.9990424776072294,0.2868745556581262
-0.37987358545787975,-0.23215465680260364,-0.35689533829052067,0.12764640239175154,0.5322551437765027,0.11781607755220681,-0.6678675321415838,-0.09140482683681937,-0.44781588515999987,0.7971636488565768,0.13240704521499919,-0.5871728691381127,0.16368043173832042,-0.17142025461460197,-0.26717276281043434,0.6317263787664035,0.1907996828747124,0.4391094337115123,0.2755771304617527,-0.5112498769171587,0.08615551697583934,0.012076249311984503,0.035413380923786326,-0.23354672842404461,-0.07375174183528037,0.04683883786950607,-0.7598877798611958,-0.17811137481976813
0.690118709045521,0.2971418381178953,0.2398629409953281,0.016433968389051173,1.1029813778398487,0.5724660600881485,-0.10019450745795269,-0.03912777517615688,-0.2666008657011976,-0.22779647042768156,-0.08891408836037348,-0.10909788055233931,0.27283469104739494,-0.04042789613911293,-0.16796454783489648,-0.05253179930381842,-0.16334960144077987,0.594591907708136,0.12504753926760695,0.2571183733588357,0.20620883958651592,0.1150878941491943,-0.12659840401914277,-0.32837015970524425,-0.4511536184539216,0.115120469481267,-0.11185599040510165,0.21149938297497356
-0.6665114546319275,0.9052289312336145,-0.18132401831227987,-0.1957714601097369,0.6146278213517826,0.34502682799830037,-0.1202095771004484,-0.09575121597038072,0.8188887652749035,0.16705321936251305,-0.3265223412111301,-0.24633527908552855,-0.5123073390064613,0.06481412129321214,-0.2310693276347894,-0.16842545034490028,0.3242454614227766,-0.1320718006164911,-0.28695215558499093,0.6660471784871835,0.19302384972364073,-0.3617482626243487,0.20425221351572398,0.4275608081554883,0.8388230054433183,-0.24998235424474374,-0.5229733885274032,-0.07668468209815128
-0.35359796872557137,-0.7629338839005977,0.19372033056636376,-0.0035766510365247504,-0.5799494223396399,0.1752019255188678,0.9114109132513945,0.05108246285058703,0.06542180501071336,0.24318932915512434,-0.09723788049343599,0.16771002442471658,0.3480507798575967,0.2590046091174435,-0.030151542437674286,-0.030825612118255002,0.4860622559452078,0.3207897805641119,0.3071982689320942,0.07359030127063641,1.1503449209638845,0.23818951300616636,-0.02066719089001018,0.12882032024759849,0.48109956030640777,-0.5267933718789861,0.6783226499335318,0.6309308049907287
-0.46727844208173064,0.06564147506515577,0.974873298846958,0.30128424523269853,-0.02043204133521581,0.025322866206002586,0.16012505372220545,-0.39092266047634383,-0.48435274570953885,-0.2882785877894284,-0.05357571919282869,-0.4792724875440982,0.2662046245986729,-0.306078323126905,-0.03496771971237038,-0.24879611630282444,0.130493455392642,-0.21944554651665438,-0.6682014896281494,-0.2016851181634775,0.8113555333068506,-0.17641636920919473,-0.5611610101717976,-0.20316016966290631,-0.6940367407482811,0.6973291634798567,-0.3244438053707535,0.2795588840811577
0.031461944948667955,-0.3427590635698964,0.12467357431180225,-0.21195280343054343,0.6489388338098379,0.030410229305056588,0.22543854524321075,0.02773446087620478,0.5451435546261675,-0.1207017976569308,-0.01596087144977901,0.04260623309828985,0.24337396237527734,0.25538030416132523,-0.07069347566692,-0.3886873517502803,0.21353144021359433,0.2796254881440504,-0.3228849500256475,0.1773701208546876,0.8078696998937229,0.22285295099723335,0.5123563615743877,-0.0783363620664444,-0.5681697133402563,-0.5068728743567635,0.24655525862321173,-0.2702251337474409
0.694469671441349,0.47079205189435464,1.0928118928804746,-0.45633874630821464,-0.2768156164399338,0.1374863377268207,-0.7965685812988701,-0.12943360774679563,0.14351289864010677,-0.057102175215662486,0.2793729303431259,0.00010361177492597469,0.2794561906866726,0.06331690542233703,0.13102353980048342,-0.09063613352813443,0.26026700325499014,0.06118601582638275,0.281858089481078,-0.06630670158006864,1.0276330791684918,0.08107967331117161,-0.3610611403279397,-0.22165448000786508,-0.10776653308134622,-0.32660549384197207,-0.39300934463439524,-0.6521714343503342
0.049517370616085674,-0.03303173493642346,0.34503103311279804,0.07365651425871528,0.7284816698287734,-0.08084455302106218,0.31940910111482856,0.4920865029069231,0.2670130926184871,0.09518246445409544,0.5487387742392462,0.38404490077085623,0.49390777755239573,0.2668579157720528,-0.1693757322623013,-0.05603469219727619,-0.7673869941170867,-0.20598774307160983,0.261509177281971,-0.045467427133005216,-0.36403498542507534,-0.6170896137857678,0.0652419057181967,0.7732635012020611,0.257724708213463,0.11076572476582522,0.4088002444247516,0.1935073068244087
0.23344126312186375,0.21484632390679295,0.21703816700908637,0.3218031505247633,0.13364995778576313,-0.20839499931799116,0.0341056147856378,-0.1337733488537783,-0.06703514797786594,0.25118799424579613,-0.025725258298322336,0.46636134152795444,-0.028720810021484112,0.37788612009806166,-0.761418778925032,-0.14792266536654014,-1.0071633851192305,-0.06776822563170307,0.7674202741292374,-0.3376554808367011,-0.6847159329977968,0.3319802430797368,0.12166859725698398,0.011869541695011537,0.1866467958800054,0.01696928432776383,0.836951393341219,0.003881682693480369
-0.45971705948542346,-0.15214220172826756,-0.3041707364006068,-0.6785488178652572,0.4302422524262798,0.7744866830535024,0.09600077338255227,-0.09590838092625294,-0.5936457397257965,-0.04764270579146238,0.08613881655893646,0.7700401108396859,0.3952892159510889,0.030949906664218513,-0.8492131716378097,0.14725689591280894,0.027401374975517,-0.29995636608250265,-0.08432431408006456,-0.4448088508425263,0.1269508105618858,0.37289267500361534,0.6935737434924651,-0.34711526134943166,0.10914162334746873,-0.5009830487111395,-0.12121938071305048,-0.4480793375465293
0.03700489498681188,0.3980628283169427,-0.32272140731025056,-0.09432267377980533,0.05831319700936975,0.05155819074078868,-0.21400384340206233,-0.3519541304500641,0.1478243769371966,-0.1794942605877153,-0.4149188229709094,0.6999837384517889,-0.21697885195673874,0.16517127835501913,-0.5567220715674317,-0.580103240509464,-0.23082182011214658,-0.11742313881008667,-0.7229841772344796,-0.07048683656182674,-0.12585398193780575,0.36108235210796713,-0.2093470362646486,0.2805792852434955,-0.05006259147871048,0.19115606491506432,-0.4319587271274349,0.31003916064427983
0.02644734137615048,-0.21082809881596448,-0.18494754681219483,0.04766763699860298,0.020774074046219584,0.5586268898428091,0.361944237473718,-0.8782472737335205,-0.14929041735479978,-0.9865366692030502,-0.27028408442754437,0.7280256826742081,-0.08897653115587066,0.4057700396694961,-0.4311664747514701,-0.36879640968420074,-0.0003779551236063285,-0.695511799152523,-0.5446294304182447,-0.060106006773907775,0.7188484482926064,-0.12154237595948782,0.5419582071322123,0.19650927619680328,-0.3576410079723265,-0.033175712633140564,0.06454318124116072,0.1348524507919597
-0.6495151563024819,-0.7525106790388544,0.4396722610268077,0.10017217988903543,0.16640040163665923,0.49072820864322425,-0.05735742101915518,0.4825983374154818,0.17375060629864258,-0.44290740019706965,0.030193903147942732,-0.13248225443212933,0.4978186637682879,-0.15039475297899202,-0.5371796516756899,0.2892595092495902,-0.7205358382859295,-0.27044502988796865,-0.03251142317325736,-0.7930345230364609,0.34171532448178815,-0.4251722458199016,-0.20024151227206644,-0.07062440470665424,0.4268960231878865,0.6135124321640512,-0.6204220369531612,-0.9754037795231867
0.2066218892773901,0.17150684925588824,0.6353715534517367,-0.8683116309972712,0.42634875251389254,0.032968096412926556,0.49832592102161544,0.08311197416792195,-0.32190778011522797,-0.49445292637211735,0.22622645321555393,0.942681896757383,-0.9995699081458194,0.21631028669406527,-0.2886666488368908,-0.414696754057217,-0.34227554054470355,-0.30672690862028534,0.20987844290862284,-0.1679340386570131,-0.8244030435276195,0.2687435421285851,-0.09381150277018686,0.9879161901548165,0.13158792443008846,-0.611852189151229,0.6006142149175747,-0.20228306920739664
0.3097619869744355,-0.3400543378370969,-0.8249872650627562,0.04452507225511398,0.9133843256206277,0.3633637687097731,-0.5721928531032562,-0.07299916718754931,-0.11597241152276505,-0.4825733503394401,-0.23920242837989958,-0.7691207910988132,-0.21796475591745915,0.0995043124847675,0.1681473139626695,-0.21208487251017918,-0.2791213528318546,0.5191946999196607,0.0827068880903883,-0.14369004566450844,0.4398234180467508,-0.4312931664463548,-0.6388687418518565,-0.5038832069397846,-0.44726104765327734,1.0263122792686978,0.43219206359561096,-0.09376722552357178
-0.19040020126818516,0.4072294279806321,-0.736846068774339,-0.3259648788326955,0.11598682668030989,-0.3857640380872718,-0.3057992905181112,-0.32090900694585206,-0.9624463443137232,-0.17629599819385838,0.0011416914813112918,-0.2388775947322942,0.15898295179544542,-0.11293780955959752,-0.871409744555089,-0.4737748151051451,0.38981980378555325,0.2553744454077189,-0.04001340409134616,-0.0040347528861787866,0.4954747539296202,0.47296147220601653,0.5339692434687235,0.19643161587975344,-0.16820392302646459,-0.5135700506712197,-0.17040302309692376,-0.04418237929353547
0.7163379570782704,0.03239976518756426,-0.5213593707210595,0.0865035409293155,0.06608636689640435,-0.39403491068205654,-0.2066674939588936,0.4107671371852055,0.060456622566408325,-0.12475252791082671,-0.5868202759504139,0.38938711970840023,-0.25601770966731485,0.14085847129110704,0.3773440349563552,-0.24425079462392066,0.11486496371625438,0.035516263680765825,-0.23938429922506568,0.024420874457527917,-0.027026820183596263,0.4672619968261341,-0.3746727918772146,1.0047240728406635,-0.085582281904246,-0.30360255910870493,0.45538004940992866,0.10716226671574462
-0.480308506002333,-0.05081463942768105,0.371438780307684,-0.3535265264865475,0.016583228246703146,0.134921592311518,0.06164442103428081,0.3468388459368473,-0.33079096346910525,0.5736209707468494,0.8525860982936947,0.4150658754284216,-0.06740101336248436,-0.23004302853779848,-0.6619595804521465,-0.08906880060134184,-0.14408927559638451,0.13098826669791847,-0.3630292037075631,-0.5166856452276359,-0.1714277915732629,0.28215137153246905,-0.10049477226448902,-0.3380344583877007,0.022046839177361836,0.46138697771861975,0.47797737545213265,0.12210507161263481
0.3233141917107089,0.004014597053561097,-0.4035185953132479,-0.21234931437958549,-0.1301178853885291,-0.4691017888530401,-0.1168748590893481,0.3064108323369405,0.1646177321862497,-0.16764637065849908,0.016284971864856987,0.5712794232211964,0.10137939044354824,0.5160377176002314,-0.21105193386500679,-0.15941721778661597,-0.27754729020047497,0.053070035958405516,0.3546187323490235,-0.28406055642433303,-0.5024972599559167,0.19282977699957346,-0.2790920256347597,0.39903769845263704,0.1017827642109002,-0.42023541982006996,1.1946747664359811,0.09161515515510384
0.02477878127774868,-0.13026187418271262,0.4235160140985762,0.27145093696076145,0.295325101477029,-0.20457221470327752,0.20429588743504629,-0.2760854619420244,0.06432381936912068,0.6368499606854167,0.11594120689464718,0.04981114862357466,-0.22341545812435193,0.17974850351527874,-0.2280384701989605,-0.11516631001922838,0.39913910697085814,-0.8796571587147813,-0.34911482827573764,0.5038719807110443,0.4631007257338555,-0.10166417787276996,0.6184532607818728,-0.45346249512758346,0.14437257131459535,0.11192279539324353,-0.6483898181928335,0.26898043485271117
0.783215294119325,-0.2994955799659986,-0.40248317079671725,-0.028485004534115854,-0.09147162566687542,-0.0066967765256201245,-0.34840472251408183,0.20396840456598783,-0.01952655653263092,0.031693673662782876,-0.29211180640198703,0.8377182693936784,-0.6236806493417543,-0.5963911231417247,0.8492657300091112,-0.9089244515290777,0.1584422321604526,-0.3427466078982918,0.795801758532199,-0.0701154113480455,-0.08132842578953549,0.3021453396626141,-0.5369176897426131,-0.45270142095201726,-0.05077797642614268,0.025481894616397542,0.7583290402013333,-0.5997038381276752
-0.17418905940417642,-0.677611836166605,-0.5822141979041158,-0.27073858623381397,-0.0658341541461373,0.13418771233290036,-0.09913126935291645,0.18811940886690953,-0.23165350811676547,-0.5307850979794828,-0.24314414167897316,-0.06736697757958529,-0.11036911775761016,-0.22288572539534124,-0.7551667051019857,-0.0991055097412129,-1.1104104241575006,-0.2370021783029156,0.25303136363748435,-0.18597926720585342,1.2231566318930096,0.3670100765454473,-0.2961382668139937,0.5296904055992058,0.222377289639189,-0.5074854822138453,0.7819123243986014,-0.40903731627634454
0.1470300393275503,0.0914349044820174,-0.08730666300555107,0.08225360652861032,-0.11054053164411973,-0.09416527688302771,0.5767839907141042,0.18073271641756042,0.2695389250774772,-0.4568623060511938,0.19000674870552622,-0.19083260922454937,0.46857111190873896,-0.11482852900815527,-0.09913906891595503,0.3366632840668158,-0.4297981214248332,-0.5371040351528152,0.8932088732834202,-0.08802305784955328,0.08807749960270972,0.09774633811406507,-0.7364782799692234,-0.23978806597967295,0.25989336633933724,0.014508340189989538,-0.45367311675824096,0.24394810369369208
-0.21250443418797638,0.7790890709542913,0.07997276900568644,0.145970411012899,-0.08655200894790112,-0.07459198014926814,-0.15002206731122186,-0.5303504035337797,0.11195607442241269,-0.8404014503113288,-0.0848144302547735,-0.2635043866011956,0.44460422966411295,0.31942570926003805,-0.5404353458888006,-0.6886838187742966,0.7701438484309436,-0.17646665464431407,0.1629087299201392,-0.6306903889713859,0.4626684323684202,-0.0005051692832632895,0.06232090503901849,0.08806479621159194,0.17948977212153652,-0.37092233295869476,-0.29196103421494723,-0.2995485216627472
-0.02914738264761122,-0.5133024514463317,0.33874175451293476,-0.4071558286608215,-0.1714708931910547,0.5067721394888324,0.5192695304769402,0.21713935716871574,-0.2830605378357789,0.2639370207035872,-0.5802855408574356,-0.18950531485099376,0.12024067061474086,0.18159997475148693,-0.05397686392632467,-0.23641459205704582,0.41484274023592016,0.8903072822237076,-0.19471839754415304,-0.2071497445995053,-0.07559718173932593,-0.06484675482192892,0.007061853275979097,0.08142144037630838,-0.3451880139267783,0.5076577831329039,-0.7478505180304236,0.2292895101922933
-0.05505905212110176,-0.26965238190932433,-0.45497352591002727,0.32855066748179085,-0.23118860912960773,0.3666065311025931,-0.013613487322526109,0.26773606630330543,-0.6177922155728968,-0.8629457703954705,-0.09809349853813852,-0.33605080341469856,0.44938011606215217,0.056711811149931256,-0.0049495822906239365,-0.48187286849608507,0.21779299161477203,-0.2841033336023316,0.6036686587546151,0.503305803855675,0.6435571459994702,-0.6951661850233285,0.11678002546330751,-0.2280595352706794,0.8012984403843507,-0.3537696978622047,-0.24842091210697884,0.26426047211692655
0.46834691741252066,-0.0041223213603004535,0.3149655344428169,-0.5625867258032019,0.07187678219577168,0.3585113919628369,0.07358105579018537,-0.05343119246809589,0.03422345452193901,0.06908186618993235,-0.3311682277565628,-0.3314274889745432,-0.23240464974503602,1.077197220859092,0.14678237817112416,-0.4789820384640343,-0.4475217043586252,0.061108075870286674,0.2832704095224477,-0.10622712797015649,0.16742768339630665,-0.3343195505792648,0.13059721310624892,-0.07210530558581787,-0.14787999674685096,0.0917399181488439,-0.26766276668458433,0.08885324533093238
0.02220242903793181,-0.821055200613725,0.015410624840858537,-0.3601116527352072,-0.27835454615189087,0.24696924922925298,-0.08776200052027847,-0.41023521358710807,-0.36965076467995356,-0.8720306876855026,-0.15323495992516425,-0.214274743458583,0.18135797118041766,0.39586030908272235,0.1151517059982569,0.25276365388531025,-0.05492865770406805,-0.18233751379674676,0.6138732928058278,-0.2195925041782656,-0.1863968620523588,-0.14967219943370894,-0.48490606252079477,0.3851604067494737,-0.07122488255729717,-0.3769784774012881,-0.030215807307020257,-0.14681804498881137
-0.2918651367212128,0.32928471194676845,0.07908537198495424,-0.020762666514187265,0.20047262175555036,0.14755814762761896,-0.304255204790359,0.7268700579286682,-0.5935574713026537,-0.9231816318872653,0.09577571244867963,-0.174678807719842,0.7401777081992144,-0.4487892998951714,0.5501274424620309,-0.061967026475843685,-0.1894750254347759,-0.3987033826154341,0.4261238923773228,-0.07832812284884628,-0.12618500299017202,-0.4197709549574579,0.17657614105903982,0.25903146865856713,0.24339418755822909,-0.13103345133250044,0.00983516030204497,-0.48165475064809643
-0.3671926313168199,-0.04585525612720278,0.32614014856383855,0.34070423400048344,0.6236801134933986,-0.557927925827481,0.6647357450171721,-0.307540792779004,1.5402628340233322,-0.30644470732945794,-0.13130439939235986,-0.0019331144570554953,-0.24077608597726702,-0.028258731072707804,-0.39838478402351707,0.045871379387889634,0.04035320736535005,0.46022564415312744,-0.7084242507751473,-0.09634066291187028,0.21815435777878533,-0.374588059453313,0.5554897584804963,-0.051254367093161286,-0.6798298169201853,0.188435306540635,0.31150948968987935,0.2356208360518916
0.10592328895906092,-0.004886998673603275,-0.08327892797441246,-1.4635592745325283,-0.5987254227276027,0.1976426035014507,0.795627344105031,1.2559323168856094,-0.4394017953673163,0.21165143076965506,-0.419842224741155,0.04344191941072896,-0.273250963651856,-0.277319769364758,0.5276818263185981,-0.6058082814919366,0.2085034937719081,0.09387109445466958,0.6065725820836175,0.44993087776799545,0.29563332006870563,0.03504243263998083,-0.032858156634207866,-0.10513256011757781,0.4363974463136904,-0.6744139084406783,0.22933813300337125,-0.005798976125354177
-0.29154565415777506,0.11775925163050034,0.44286419634232005,0.7039556295200096,-0.048978366629908975,-0.09209740176705336,-0.5933752187035477,-0.16276904158934977,0.06806857803965802,-0.4044234684890714,0.7709033051604044,-0.494697472386268,0.054714794110955804,0.4265837894488158,-0.11537964998001546,-0.37674690300838026,-0.16271755452423878,0.5081062489691396,-0.3104008686700291,1.160973771700366,-0.45857150714306927,0.49260534905469233,0.17622368647499292,-0.4204498322691546,-0.5443739136894368,-0.21904322754579544,-0.09383072329056602,0.09189125698646781
-0.040060218787769795,0.2856987966418706,-0.16735103785738237,-0.16318913035269872,0.45467167285234356,0.32216115777524457,-0.21292565684295217,-0.6962526062185678,-0.16704256282609256,-0.4506223778939669,0.28828802878540066,0.27374677281066995,0.1502872085044947,-0.4352668951641007,0.5134961223830273,-0.20327884755368666,0.22655359746975615,0.3064848298213042,0.31327390695993357,0.29666284870210746,0.7098375026833958,-0.263778972439745,-0.5132981357819758,0.5940858684531538,-0.2030493305398735,-0.04884579443639812,-0.40849491246759967,0.8921066822634324
1.2231333596296252,0.6351509287465193,0.3051731926489888,0.08323477167463579,0.48842160595283923,-0.1407932781276094,0.12213991006085291,-0.10109947925624159,0.2703399586439903,0.38756116090269593,0.20315907075584738,-0.26785342407249507,0.545633439280956,-0.5103134265999292,-0.04965764010198366,0.31038371722765046,-0.4064826116881763,0.48810400232641915,0.18473766997622532,0.2320210647105565,0.03648590240930483,0.39122528618396146,-0.7101238224678535,-0.6821986157293101,0.010480120621927182,0.6081827144632594,-0.07531597850248219,-0.17692585806426334
0.168692046507604,0.12651335075681652,0.0070300649047412385,-0.3243282745631486,-0.5803348505751592,0.6355938561477332,0.7173295978691805,-0.11082060123131428,-0.20226309865378345,-0.31723186986486096,-0.07983177151239275,0.19978275828169595,-0.35064302707777667,-0.10919723316673281,0.8319737108163284,-0.12126449211884416,-0.24263466449781365,0.041831455055621816,0.11678681157180709,0.24156232942097514,-0.08067799654960499,0.36326394061317896,-0.040524041235539814,0.19225276092689936,-0.14606017001624913,0.6299301410963459,-0.16108256420451275,0.36450873373970494
0.47426226412174183,0.26298436565913175,-0.2028221139154531,0.39988254010004026,-0.1664805009710207,0.015088033754792438,0.12047656044392574,-0.23887679649333332,0.045508920888811755,0.10521921888193879,0.22118609601603328,-0.629349499974924,0.3509492106352378,-0.06377680507426842,-0.26964112492768605,0.10043412999694086,-0.2492194232971981,-0.09231810902376006,-0.025696233098257835,0.13135675134584945,0.35573242159759627,0.1723944165580477,-0.2124218754752866,-1.0187930856937664,-0.014383410415291559,0.25105661593512946,0.5442350146318999,0.31705944940160624
0.7065502558829779,-0.7681211245773955,0.14519817326814688,-0.27527274891603437,0.32837477037301355,-0.48001025249055185,-0.3847523494565972,0.014100414866183795,0.6259453502897248,-0.3599221721181668,-0.16053587693827862,-0.23207605045346494,0.5990610829893425,-0.09416438056425182,-0.004322252255893185,-0.9878584086160014,-0.1363298991669648,0.3837536697125211,0.5536416091880721,0.20682671688933457,0.11137504436529265,1.2123419116049594,0.3138524521274846,-0.047078478038182964,-0.911194515515721,-0.1539665024546537,0.41189916346228145,-0.4881078127697439
-0.3186795556980608,-0.43920683936576266,0.4159186976981344,0.08161434318514484,0.14938817083036207,0.466877287442613,0.18055537231429095,-0.25952913852174986,0.181370330507314,0.0038587681461680276,0.2563197567195477,0.4496936569960941,0.09692775740960861,-0.49154846960756926,0.1919572768016907,-0.3766877197785706,-0.09085179480686724,-0.2881847200558743,-0.07654351400962603,-1.0384323532510031,0.0991109766693711,-0.1262630020015393,0.051368116770589646,0.2680045454576138,-0.19311083736483048,-0.5154871686220259,0.10955758030683238,-0.28271453955782905
-0.6486920662585605,0.27312693418220674,-0.5085375843374609,0.31175990521065217,-0.8340491125932594,0.17638801573827548,0.1330665381781804,-0.1333876594149383,-1.050578760788217,0.37488776844297833,-0.24362881130561173,-0.1121018070346287,0.12620617695961586,0.2744657711323662,-0.20185731748960306,0.6685358102411716,-0.2333239413512615,0.037494031275903665,0.23495691100865887,-0.018180830025334722,-0.05974448943586772,-0.5379734111844153,0.24922898893182904,-0.19964156681932585,0.9667007933723635,0.5815182099728965,-0.4644545666118041,-0.5225731447794902
0.050673378312035125,0.23440448236255718,0.7823133659153997,0.46155871331184506,0.46199982198368733,0.4846568637947753,0.47314177631024706,-0.22715498737945922,0.4633374542764433,-0.4994321261579311,0.23317642518888243,0.24219414585468177,-0.7182021055760484,-0.04915380379357315,-0.13048917218477152,0.0432442789475223,0.22444991232036116,-0.32074947744750965,0.7159307858411019,0.18205261358720473,0.3402587126569947,0.5270170952490839,0.6131150597837703,0.47614896737806306,-0.09523138879431255,-0.030228111999967854,-0.11654690902609592,-0.5036456577564299
-0.06599459429669201,0.2613558020354459,-0.20303645601063122,0.3335498633461542,-0.0384463758489471,0.17820896699979444,-0.08576593514174201,0.35226043188652106,-0.7418706828200252,0.39629142629342334,-0.0916532883660365,0.017111321602326646,0.1252585342188718,0.027251995474527432,-0.011074202973510215,0.11557991230925921,-0.379364683305633,-0.1447722371283986,-0.07427886568046474,-0.2843241212877569,0.6059999756642953,0.7956760203844676,-0.5069274901284093,0.008515967511587513,-0.00931761260573183,0.7664324914563764,-0.2836317158374461,-0.2413878656473477
-0.11283243500103782,-0.138102032296545,-0.8971910683793344,0.07878887196075487,0.8139962315011199,0.556020872859408,0.08500978532842521,-0.09127644647007453,-0.21470893229376478,-0.159706044748277,-0.25377056696484696,-0.16838376313251205,-0.0733061630301929,0.18050023074426252,-0.5420851555644152,0.1713029679646537,-0.10817676263598781,0.5200841276229139,-0.8439067795151369,-0.08892692194252257,-0.30125130974915026,0.5242983344438793,-0.49241812494000664,0.27150560779208566,-0.3713536217271409,-0.9540119440963207,0.0997321460644966,0.3697784434664063
0.37285309186536153,0.07612385251583496,-0.678602519161338,-0.30078033732880655,0.6386613717974807,0.6289121582296112,-0.6918635738382123,-0.3583321990658511,-0.023109902278844387,0.08645831290404744,-0.6808238685442054,0.08818403773148893,-0.32254034674805593,1.1161179133957448,0.054156220118716805,-0.4264690526175336,0.18326336816787447,0.15863491831061452,0.5542197026924464,-0.16587264842139207,-0.3289051545934446,-0.1736659092437687,0.6950004186412906,-0.3327604071719137,0.15435287882845494,-0.545649306401975,-0.4667198062601225,-0.7677656283679626
0.96628446604506,-0.6451823747096761,-0.15567423587850812,-0.6301369050995601,0.6887129699347715,0.34407835406600834,-0.03544518892898515,-0.6872817988655034,-0.0073473410012752285,-0.5388574950270087,-0.3687275687449509,0.13155613929181656,0.6687763004107717,-0.4297555890595247,-0.43225263400445996,0.25019487801358475,0.35442254825911174,0.521376329765673,-0.12107996151940321,0.21270459721410964,0.1278003117828733,0.13641081197406738,-0.3486103987841974,-0.08170728026913218,0.3418081705520131,-0.19085404484357704,-0.48596843020826846,0.6752223727918314
-0.7878054998549598,0.887309573764419,-0.12471799062492553,-0.27611797842120794,-0.1291853751259263,0.010526028603700712,-0.510032300750776,0.7871998309642967,-0.3484676011210731,-0.6326671159093947,0.01032217959555504,-0.3303542682101275,-0.65429801056318,-0.289306471055094,0.04310631900925847,0.6072905974183137,0.00903260025420745,0.0959690423968167,0.10674663831236736,-0.4633373429951456,0.5171258774076293,-0.044360582843069825,0.3125456166729562,0.5492647114482097,-0.6832768738071786,0.05192593046468452,0.1977334033524597,-0.22185181781992958
0.7049425679709149,-0.09613346345163398,-0.4846424024199915,-0.13682950063837865,0.18325264187119075,0.24312983975468372,-0.8138493121477073,0.23406332064377666,-0.19234655652305516,-0.22887755230134985,0.6352176607886679,-0.11400013295563631,-0.6639877065566393,-0.16636428514821439,-0.15959966800992728,-0.3401640843302874,0.34048911381330693,-0.2332607919162752,-0.052571314079238325,-0.08088266495918037,0.47947788801646657,0.04460517744553674,0.08263003468186093,0.1578347336810305,-0.5812186940815678,0.6829147224025992,-0.4024767756993396,-0.4341249904017591
-0.7073721841478614,-0.15150417817884212,0.2840523135423574,0.5519058893970489,-0.2492359853360992,0.05669132403779924,0.3343085970971789,-0.14783107887189384,0.1717642252942016,-0.7625933177058538,-0.6031995664371237,0.2672152745056296,0.11064426962669975,0.6460718060049142,-0.09381764533965434,-0.2557266014578165,1.037136529881765,0.02834407849079781,0.7818395206005904,0.14394318376686435,0.2105008066443998,-0.3659027186266515,-0.33294076847851284,-0.2619962723228513,-0.05714786081690059,0.29506225670336067,0.18707339029338835,-0.16176171529901048
-0.28736884049791434,0.1112451500858697,0.33222253036030025,0.1932625173163245,-0.5226843034887345,0.06057984283136673,0.06772268756501129,-0.5362509670002146,0.20992837114922314,0.26993012148540874,-0.2618553888249554,-0.22970693264557532,0.08643287545903844,-0.3384613353375994,-0.42939325216865587,-0.38098699192389646,-0.21282203541512545,1.160832556945514,0.045776627601183825,-0.8816843393927528,-0.5099556997780023,0.5820728465451809,-0.1774204798998935,0.36325434184063327,-0.3534184999889939,-0.10470870542770136,0.8225223250086167,0.029246154502978017
0.26942651724876293,-0.45816757146595743,-0.14607085104947107,-0.39633603671926027,-0.31184574198591414,-0.43454440914973075,-0.5043404624066931,-0.3451025426876975,0.41874185368418093,-0.5529050185867422,-0.36255703699660424,0.3623360066390733,0.4591036774096053,-0.39144029276499615,0.1047408358286167,-0.09985637094060466,-0.03795488930927756,-0.26874342430717024,-0.454169701993597,-0.10159281472922752,0.21941543891150828,-0.3353428236862677,-0.4128144606371345,0.07644442509420918,0.07812114415193837,0.14922778342980678,0.3854014592155419,0.46461793174264177
0.029589413000456363,-0.054277520092420185,0.06965090610137717,0.23413787989563253,0.3806142301524787,0.5351997075088675,0.4396269124117119,0.5497623071095121,0.008057050171395451,0.3154349464209189,0.38291490462832906,0.2586256839140785,0.1256851715103938,0.281053565323204,-0.43437565154580743,-0.42223429578514027,-0.8047364971025975,0.06397568275602736,-0.14462359040277864,-0.16436886377744164,0.22156908873312292,0.24179030131658588,-0.365386130147872,-0.2821515591172216,0.0026197210318284372,0.10630452053818037,0.836989787805266,-0.2923261913674997
-0.07107658150096109,-0.7015810429637255,-0.13178528370880555,-0.47887980711761896,-0.13785823813375828,-0.3233013746661875,-0.3257019654201495,0.7894194811875749,-0.7816878364477842,0.014990934403157333,0.03975599543198255,0.05849568044442679,0.1070402652168801,0.017176092180076857,-0.28168678318185525,-0.02361364041028431,-0.44054165360212943,0.7186885315061984,0.18340902406470053,-0.33307999447904446,0.14728003451615054,0.061255789641368116,0.05010618582826321,-0.06883674978004835,-0.4883479121845107,0.20929379456160935,-0.855533426321647,-0.07331621393839101
-0.3636975893395398,-0.8427435476562983,-0.02911177199103632,-0.15742306899241124,0.12517678053137665,0.24077864697622317,-0.1729164316298473,0.07969336812027644,-0.3121278422446663,0.1943727744835217,-0.36207209762374076,-0.7736687457404297,0.6521713640782966,-0.5678064870498939,0.40064247933019687,-0.04808936220304897,0.75221574321393,-0.5948542563843358,-0.02069299967196777,-0.7099038041641461,-0.13693649626694565,-0.44052338262035756,0.2610800499984284,0.39117258806471306,-0.033157671321493165,0.19800715448689657,-0.39371223995988597,0.2704240243022114
0.6301372603241585,-0.14022018602381933,0.01506400526378315,-0.5051320187306327,0.40904233932756434,0.023117440187344452,-0.2560631655138957,-0.04454546370579438,-0.3607634751176606,-0.32783510554266543,0.04418163348227659,0.020199170616287447,-0.1574618390875956,0.05372335029125125,0.30513737462629803,0.4265932406048955,-0.10194110894387035,0.13176441488126575,0.08325323941626511,0.09643734386668235,-0.18085545620220372,-0.5317191741261438,0.12879477930397426,-0.07976462507270209,-0.05929208094187981,0.10838185721808716,-0.34330053821350565,-0.4977006181121251
0.049708215900727055,-0.014166573613088795,-0.38784274243257777,0.1493988805454331,-0.029541355128574334,0.9549041155000472,-0.04754431461075703,-0.15817650528503413,-0.21470019314644992,0.12514528011964138,-0.03596193410787207,-0.20734435811455204,0.5792174432175825,-0.13611859161124104,-0.552050721810143,0.21570083038231436,-0.0034103422701632674,-0.22138497968720777,-0.27109336797672295,0.30923474149785796,0.2912560040870282,0.5732533457661249,0.3742034947496503,0.009247162602359972,-0.01668861842322599,0.2344792050593031,-0.46014061368042886,-0.5452278212641876
0.02605285551453885,0.30588652386400556,0.02752696283102911,0.2710950806223981,0.04740270004093274,-0.7854772144126685,-0.6519550408515964,0.09835434390234786,0.6688243962757703,-0.8329864317317008,-0.08782541081432317,-0.3763394535756704,0.16828372705789607,-0.32212573764552294,-0.3890698692949758,-0.23145175389960068,-0.4118757822991811,-0.26402633174949736,-0.5743577260425388,-0.2461416329085154,-0.7825528855768612,-0.1083324074459336,0.6692798171211068,-0.29989726700564784,0.40219548318515996,-0.19297098880710387,-0.11072140458862455,-1.1112491078927456
0.06300287995466682,0.295728759281119,0.07092169887226216,-0.32617130368718533,-0.19685235864784936,-0.08839643884009092,0.42241433862535044,-0.24005283693348756,0.4331775197698216,-0.886966285289306,-0.4773400167877727,0.08955887696578091,-0.5632650655878256,-0.4930899170413971,0.0946414089248763,0.007680305843901761,-0.02170069859042604,0.05030727277671153,-0.11271739077627363,0.1404730557785791,0.18441875101603805,0.5014049205563745,0.33009453601722877,0.09305070681112534,0.09679571895402402,0.49027109549848663,0.5292053319143374,0.06547915176445007
-0.4682089745889977,-0.6030453409542402,-0.08518280556265596,-0.3646629092536668,0.5477078171814266,0.18926809246531406,-1.0795420954647714,-0.625543866851081,-0.035833088260638156,-1.1404779145513733,0.06952659408779766,0.7127019476864349,-0.3749032766517457,0.08765138516687287,-0.24390097671828725,0.45392742884882653,0.45049030067985113,0.14267769961004323,0.08042186128089844,-0.4299501958887449,-0.01098813806794892,-0.9189586801294487,0.6183385505542398,-0.44464233814464166,-0.18752528809140226,-0.06274242692879592,0.07925786144543327,-0.5381222853632205
0.24569214905654585,-0.3905680120179942,0.08504907766168245,0.2587488209136973,0.20915164572233894,-0.19674692493949553,-0.28782523007274485,-0.5487667037408694,-0.028573767907327935,-0.3068309114320069,0.12156242599366165,-0.7288968714527263,0.0007205374916847556,-0.02915643185080432,-0.7916105627867019,-0.013759006570160276,-0.12523918939118361,0.35258798363296123,0.3727801914008116,-0.5529602065663799,-0.7190948610138794,-0.2717566167529977,0.13804417259143403,0.030636268054507403,0.6417105641427059,-0.1814867561121154,0.4687488709955849,-0.6874301207803845
-0.1857542826746185,0.660525364540466,0.13812604655504296,0.7468172877612496,-0.07575991561283835,-0.17264356511252488,0.039639952699654514,0.4446183325073224,0.18798387637664948,-0.05398643571467407,0.2107994146828568,0.3527640727943985,-0.5556648892889648,-0.15925727458859207,0.4343837759054152,0.29835719579482706,0.3020900115108205,-0.00033525324204616825,-0.4572239539243857,-0.027927809349775897,0.09936049727020901,0.22699607224942503,-0.3441798175300238,-0.6134882993689161,-0.22214732626198858,-0.3053975516612385,0.2686757795818388,-0.14717855027523785
0.3360051224862535,0.7006857743456716,-0.09281090631417943,-0.09122798864188515,0.2554641179180716,-0.6821352905356369,0.0462425269972121,0.8317348750759741,0.19674101979895664,-0.44853976277153373,-0.8719584328914853,-0.39095510841048364,-0.18381166744501387,0.36538776373958637,0.42167868216959903,0.043075680544386506,-0.49195897473016015,0.3628996494505198,0.5233631447993038,-0.2736133896654499,-0.04841868046650867,-0.1317037525733038,0.3977383708185333,-0.15189582050066952,-0.37136920978921323,0.21373381516641352,0.03312929753048231,-0.42683341298547506
-0.3609351436270746,-0.21050048580961642,0.03749261094009735,0.21352200815367045,0.11716439796846405,0.25631624568213296,0.443813565833941,-0.12366842011297305,-0.39151956783030833,0.3504443472397776,-0.2870519433571938,0.3459175947174353,0.21813036465636632,0.22429553951196454,0.4923891564459902,0.5669061156965046,0.2781492222345864,-0.2216733932157348,0.007153045534696406,-0.6452910990237877,-0.08223002740250612,0.19582636066582715,0.1688443449762431,0.1732589013066458,0.14699705108873332,0.07255770548758804,0.3364860354059286,-0.0009345349902483277
0.22979004378359477,-0.12121796726815959,-0.002268163837056839,0.4741371928563574,-0.12125109700957971,-0.5474387035828001,-0.5564787085800015,0.2029972252256414,-0.5556558806978813,0.7829053542050913,-0.5756649510811834,0.08852670338300872,-0.04972972310763816,-0.6861343227984216,0.4246610672817423,-0.24870031998586353,-0.01608463931351385,0.33249681834392186,-0.15713210377826783,-0.7335507458417847,0.2772955646008265,-0.23183091171255277,0.22697218801790459,0.26338475221887786,0.2620682965255931,0.14396269600861525,-0.09918185790139426,-0.09500624646486786
-0.8765717695284473,-0.3055222836185634,0.08969093384698984,0.4043141409864158,-0.11757345331675056,-0.6731921976101884,0.24741135178692752,0.36551879427216555,-0.5591505648648541,0.5364196253895842,-0.4995272270145204,-0.14847062729161845,0.16249143974328054,-0.20108432273025822,-0.5457813047137923,0.3860192971344985,-0.7746658479729468,0.8523417373225595,0.15774056779466825,-0.33565244425287494,-0.7722534421959563,-0.15058483352404603,-0.5749920104526764,0.5164680238577251,0.3136929171665278,-0.5579787633069404,-0.8374119850999397,0.096084244944669
-0.3273126028353266,0.43454059389060534,-0.04635396078693754,-0.8047045298760663,0.2529374970943496,-0.3182175168385947,-0.5653224617965351,-0.7033275403805683,-0.0015144954660754773,-0.38663090809365086,-0.40146767596186167,-0.8678658613179634,0.1123055079441636,-0.6311378053862343,0.08759961517411127,0.2184856626440636,0.16282860066654503,-0.6437768902721153,0.12762033537669265,0.13403177093229704,-0.11397709575589988,-0.0054154865588591245,0.2913344664831579,-0.1366360235120967,0.19114329464633142,1.3251529806824716,0.10534040276138883,0.24220080544394124
-0.1349372283814732,-0.21689347768962347,0.2414289352277067,-0.6633446682717142,4.810837757849241e-05,0.3887875244393015,-0.15053916065626607,0.621107739105973,0.7504988459913661,1.238514505590627,0.6035640216852816,0.5681282710517283,0.6612511595603379,-0.5721566695104033,0.3159906253835356,-0.21806070103710742,0.34723048305139365,0.29953144674259496,0.44894292797441926,-0.4932013462187593,0.36155104948819544,-0.7333133388166376,0.05498251780125266,-0.12375169895028695,-0.4644285916965699,-0.32862961604552465,-0.07848479050965677,-0.8849077804022545
-0.22100895889922004,-0.10444495111234373,-0.12314583351815682,-0.1839575402931126,0.141936534014015,0.16225943383471172,-0.06464843398484259,0.23854801646101298,0.12624160573573337,-0.871229405186407,0.5796228108693503,0.37958398092758294,0.10062679559935289,0.13005686263880908,-0.6516166465201474,0.26625698244435475,-0.03637270252096121,-0.26486389121947385,0.3822683180207095,-0.07119002426970457,0.004194354484172767,0.22066409958605185,0.480481420548455,0.06875918507312317,-0.11119760290651039,0.43427254535119986,1.1943957512028163,0.07406881731778196
0.23265968673473889,0.14443204205523757,0.4158180578901426,-0.3391467779108506,-0.6555934318045382,-0.5984800272133455,0.6723891337454018,-0.4563564179673069,-0.28727630296099604,0.29390738740377575,-0.028495727101605244,-0.5248596314783769,0.1807558075589847,0.5661653277511299,0.13009358791407483,0.2785256682114516,0.2821025856952664,-0.34435644873828375,-0.35853252921413986,-0.45872900131217265,-0.41975769486904296,-0.3040553896558558,-0.7294830775371107,0.6506287842425252,0.10022004070867424,0.04627376492713801,0.13517431260151216,-0.12403466367202315
0.4742981246648063,-0.31862050046929496,0.09013662075116101,-0.7667048300025999,0.08726565247325797,0.10058898942081075,-0.3064390727695763,-0.08991684000724579,-0.4712115915143005,-0.2659669722640474,0.30662130950379096,-0.61749781742406,0.10074692332061126,-0.6568147745858876,-0.19916679972655296,-0.5382622249503444,-0.23618944485205592,-0.053863717456552065,-0.472609736913545,0.08424720332214937,0.19199503285573427,0.30707050466307106,-0.16377850564459173,-0.4769356359288127,-0.4363098221129181,0.4603108078569333,0.11443484677494409,-0.7679093480922905
-0.931128726567147,-0.4434476036394575,-0.5624879904527093,-0.31598643693788625,-0.3289040895185909,-0.8601661291909479,-0.45483875383963024,0.21838726081573562,-0.2500791189932952,-0.35167271986075993,-0.1591803009646937,-0.8870209602087524,-0.29994601939948856,-1.2001303527686673,-0.30698997131453293,-0.8157947132921406,-0.15794560023786336,0.553835926102199,-0.18369453971415958,0.3495211204006653,-0.5036323462578658,-0.03128831512765338,-0.13466691643278825,0.19003907081166616,-0.18075945617145242,0.6600868239826603,0.49476465020132715,0.32377102682405123
-0.4277324806549017,0.724457636364261,-0.008251410697410668,0.12028228639192835,-0.0960170575239223,-0.3552682905407028,0.8678907670054008,-0.4272769352781761,0.3010162627283179,0.724737420477073,0.05732702712973357,-0.0337162925365892,-0.22272189775380857,-0.45556364076235606,-0.2781600998697326,0.3860575053184279,0.7394005717834781,-0.23979144945956504,0.24438107941624534,-0.2510604475121131,-0.11197732386722399,0.24796633330365625,0.8956670347035582,0.7220269251027974,-0.43270219433499774,-0.33821914689421717,0.009143519326838476,0.16801741981121654
-0.22821563311888868,0.019891708981231344,-0.46065736443389127,0.191441563025032,0.2507951197887628,0.22907875121455626,-0.07911007831914611,-0.1652131571299467,-0.15722440190276246,0.5201799961077291,0.2556617712378431,-0.06464906260416389,-0.022326832507880114,0.2673682268020716,-0.2734735546494126,-0.5699632611454757,-0.042253167860779546,0.2917849811827138,-0.0689718616929038,0.07379036665448502,0.4551802565515668,-0.7407419824626044,0.0054022815942738195,-0.08956724306808518,0.34725041191218436,-0.5514706101489452,0.07755620490141076,0.14416292865294578
0.2594987224724901,0.252660413293494,-0.5273367897282945,0.5113044081138453,-0.34054956020464616,0.5707221851292397,0.38552239624062495,-0.05625510198987924,0.3141722436071636,0.08365397213681768,-0.15522146729521957,0.9515275415483312,-0.02728869701138696,-0.004899779154916984,0.04277200946825457,-0.43489696154367347,-0.3413466712771785,-0.4445633113390377,0.13273869495085053,0.6721108666805556,-0.4662371728926005,0.19388674038225479,0.1924934990989787,-0.21975125570456644,0.4447643351342179,0.22849147654116264,-0.17749594516824968,0.3707081384483598
0.9742431599383999,-0.24650406913725242,0.31322578192602174,0.8164701279855252,-0.00492620538861541,-0.8888317193982779,0.13057790498413263,0.13642735791577146,0.16920652030423775,-0.7748179438710997,0.37534275271060136,0.5261916555424064,-0.3673624812013055,0.5003355746190679,-0.33992188031090564,0.06035578165770742,0.02331122003416495,-0.17409630732800815,0.2492836294641144,-0.09694766420030926,0.13254848709787057,0.40960745889917866,-0.12380615381312553,-0.12014837686786947,0.014308982008888435,0.6125993732408127,0.8274792161043193,-0.7848907548488115
0.30975626837481685,0.37802694833315403,-0.699755016471886,-0.42134885957376206,0.21944405276610315,0.01923942122108066,-0.3498479176559716,0.41866534504084196,0.42810617868224093,-0.2056467278281591,0.2851657608881813,0.8594207191855512,0.5845954022696168,0.683596954067958,-0.25129134520452473,0.2876904450497607,-0.2941408568568438,0.24253764678554954,-0.04076044586443906,-0.6008114898892513,-0.27366129746746654,-0.5869468954265157,0.10908830014255806,-0.38203772691046334,-0.2524189581682344,-0.08294321576610213,0.2631021941241312,0.09638588420665262
-0.3526762909991046,1.1623782029699805,0.2506075368860902,0.6017877310391074,0.11011391006165454,-0.7364987595727709,-0.16247308718477493,0.08643028271300325,-0.06359547438085034,-0.40056969057619957,0.3746006937071184,0.38699493011442543,-0.48533078001399116,-0.04905907688977124,0.8664197639761904,-0.20777222499913006,-0.1220076918155085,-0.13488509695833184,-0.07207163235264376,0.010589483823364906,0.16364933280067848,-0.604851186655694,0.5378092776170302,0.31354730357515065,-0.4267931834511963,-0.07885455297723203,0.1738352777509443,0.06950844109608316
0.606890437765425,0.36059044987531713,-0.4324440676567295,0.2513944766536801,0.5902982967078436,0.057464360868983724,0.35682099829838515,1.018906855263216,0.11644031327054055,0.0653608631522383,-0.24586405455383145,-0.44010548122160703,0.04346377040220103,-0.3161804117830089,0.0268824251726831,-0.031091529189018453,-0.36937563530413686,0.059177935952256414,-0.2286127097992496,0.12580830652170757,0.20695377009845095,0.12627443054986545,0.25513053856580253,-0.1855659975970093,0.2520481004380461,-0.5184427013183869,-0.3776486042663188,-0.5993870880273956
-0.3669789386057168,0.004504457012640063,0.506251108480635,-0.6884629420131543,-0.12385978045737182,0.19610028807943447,-0.20451926945653906,-0.5904819095402757,-0.5266277267220286,0.17174899241095565,-0.09526688461037955,0.1959390871150057,0.2644090664882532,-0.4971279437112136,-0.4948977025977052,-0.1703514210871707,-0.16261020389834657,-0.34354644412847946,0.39172772742308487,0.07192381325900975,-0.08550728330580896,0.38498038913621996,-0.5299909314102323,-0.095618182277951,0.38384030372451083,0.30768573129650495,-0.18082407413618737,0.2459650930340546
0.12651390802484125,-0.7481371294910323,0.5285086919631031,0.39746808529719246,0.010017982096642975,0.3594850265458053,0.5963810088123184,0.6711620961710707,-1.1342830933314314,-0.24149481955502838,-0.0011870914177193918,-0.3930147212709645,0.08933911212492956,-0.25699535612528435,-0.2130786664046486,0.5416370473429074,0.2236160771259036,0.47122375227615315,0.02121904156739793,0.27398817594110764,0.5578848084213851,0.05596833165757633,-0.50959691969391,0.36392799765158645,0.0809081529793739,-0.1028966919140676,0.1868117424084777,0.09882275716041221
0.2982944531169821,-0.47094628312310455,-0.14670890184960578,-0.1298455631899714,-0.1774381802644906,0.11614583590269492,0.2347416925625881,0.39524320656515133,-0.1939719528983491,0.17447242402689864,-0.950280041734113,0.033345175022423415,0.04685012141867243,0.044836603513748144,-0.06211880372813087,-0.21047885256485763,0.10821694334234677,0.5283100059316491,1.2699241576790778,-0.15622822840000364,-0.6510151766177446,0.3760441857805749,0.1827562938143008,-0.7364012117024499,-0.8098076976139787,-0.18844431466501205,0.1031206220879124,0.3282630268908257
-0.32806144254638087,-0.3229451230373841,0.5224807449427529,-0.3861676369087346,-0.15005302896831008,0.2439656876258149,-0.225953860118647,0.2889909754026651,0.2737947489385183,0.3825172029128511,-0.29915159612322956,-0.5881762767132794,-0.004694680021231651,0.5424783365850818,0.10750032797062452,0.21558034638308962,-0.10110915364176527,0.4764586579436746,-0.17956989110945495,0.3629443430508393,0.8005786465757105,0.09585788976375731,0.930965475134105,0.5926095899086873,0.13845289562605026,-0.11383374389296895,0.057182558471321046,-0.04457702410535281
0.2059922926750662,0.16766434634409896,-0.407395536516809,0.16089501626204353,0.5012840207057783,-0.03299088638948661,0.009234724889442093,0.6780377238719093,-0.4142538960175854,-0.14080410315848133,-0.08215046469550223,0.1871158949059729,-0.034943829633296376,-0.22120461338700084,0.6289922390619699,0.0407621654076068,-0.18477958474491846,-0.6111122877366537,-0.22174728118552428,-0.010025240395588395,-0.8152100180747754,-0.14806855211878003,0.3366485162812734,0.43321098816855785,0.39634591497960847,-0.7505495952418952,-0.054664250053643657,0.3472373693933542
-0.2720129234899166,0.36846017308311385,0.4505567000583544,0.2427651846863895,0.8126214458064108,0.17906498665445436,0.171114201715441,0.09295749878143685,0.44081470546288803,-0.35243935705607726,0.3075455136519269,0.25231298755560405,0.08480869792555282,-0.2458282572346937,-0.3814642921488506,-0.06167213445165091,-0.5795369075220923,0.3159393290480645,0.025771205718337964,0.2354462411395355,0.23825153982715816,-0.16853457492497292,0.3995295128270153,0.6654515895663718,-0.16821752058691633,-0.20860269779803142,0.0671658156312709,-0.09289937193572347
-0.08070858195392307,-0.8507064587199945,0.6228194851244389,-0.037590286280124965,-0.08579878259179664,0.2439138759417226,-0.18957081883060706,0.3105186607713966,0.05690113036686063,-1.1176171673817843,0.3381009617859338,-0.11243374718017685,-0.15429118016581705,0.5457327189426178,0.10717019834748491,-0.26126922004687525,0.41721309857385536,-0.09204740063355367,0.42075518918137694,-0.16705281821641582,0.42575955535672116,-0.2084117051194195,0.6507800475434407,-0.05233644844803255,-0.4310601281940961,-0.09048108614608612,-0.3447647461315789,-0.03774575050316841
0.22315712238259044,0.7935784222954518,-0.3193776364872708,-0.7533153515677412,-0.5554512705282536,0.24748736869935856,0.23893742918626898,0.07446102627273803,-0.0660785313595751,-0.18189205515891324,0.1970662938248423,0.3229945809448705,0.22733195870973666,-0.12316485067738672,0.4943128420472111,0.10491780723862185,0.06407362370228226,-0.04576538080381944,-0.698201925521698,-0.15527217206876756,0.2512238566401662,0.0739428867743401,0.2872433406580696,0.4536610280848784,-0.6764098438944139,0.24603262325589717,-0.7274069800958228,-0.18577611021153323
-0.04585582052707828,0.628127759785419,0.3925272195735728,0.6047898290261667,0.3109813962830935,-0.00930821091562837,0.2502048148279596,-0.354201085409875,0.10968639883413896,-0.31079417866723635,0.1908887537750879,0.10608954702361134,-0.5626909443863553,0.15813156692292077,0.2941394952986226,-0.13770367493754132,0.059465350171136924,0.606051331177192,0.6326661876793833,0.6883215432471234,-0.288431433994688,-0.15281079833621306,-0.2533928402291813,-0.1979861595425514,-0.1720521392663916,-0.13484144686870408,0.798796585484919,0.008964496990490534
-0.19627399958644312,-0.3139146976755439,-0.12980285603407143,-0.05078181477198244,0.24156832006997264,-0.4215262851615836,0.016224482111630228,-0.5649712836001716,0.9457523240363057,0.33631856146586875,-0.12022078218017902,-0.2532567998376649,0.4651736251864719,0.1634262762690459,-0.049790441095403,-0.48175617469767534,-0.10422113311889017,0.4496805900230776,-0.26428004217741685,-0.44637072415419843,0.02153121248700172,0.4555254766626008,-0.1949793015685566,-0.015633311008903427,-0.27197956454217803,-0.4417637293010102,0.04371838353366349,-0.01572623691726226
-0.863200589082318,-0.03008237092216965,-0.39504473963930076,0.2326607655156497,0.2896254473280019,0.22292511262434903,0.08975228278980629,-0.11035602734150377,-0.4009300706228898,-0.12487287881743893,0.07191481017639,0.5805513436372003,0.21700874035741197,-0.4966907911189157,0.7665746001753933,-0.8663053236748337,0.7287222476752644,0.08222669548541153,0.28311445618491604,-0.0524683221028381,0.13455879289036654,0.33380297476650783,-0.2500642271825191,0.09855726367843727,-0.28088528329541124,-0.5562261859167704,0.24225874599315952,-0.4957468371242401
0.45418584430000014,0.044397843219864126,0.8016529444037306,-0.23667165545999225,0.9524702891554191,-0.5541409169340626,0.17148358744861428,-0.3310248549469422,-0.579057991415458,0.4113334070911659,-0.01649703879675217,0.16530650922987078,0.34373889164873045,0.684287161799819,-0.7639968592806728,0.12263796053986016,-0.6026813588027654,-0.09567124104770841,0.33547898743074933,0.08008815599427854,-0.09838238571808436,-0.36194222631705736,-0.04934338960731546,0.20485279085758484,0.0678660352403227,0.024503629267662308,-0.07797108257813583,-0.10533541375616469
-0.8502129232866704,0.05317858014295713,0.004850464108239377,-0.3278362770012404,-0.04148024445235027,-0.26821961331248245,-0.6090519466575849,0.0061571503865475805,-0.21655648245895656,-0.061271825593938706,-0.3923631538796938,-0.03168744791885469,-0.48708829516473473,0.19660824254112252,-0.33031802852149394,-0.30823754620526295,-0.4668677739367806,0.11153686865787368,-0.05665108953932689,-0.02352762499320972,0.007925938516359726,-0.6743931326109949,-0.4439144402687283,-0.036383968455374074,-0.5994297051894796,-0.3274333439646946,0.06627100966977804,0.19805673772184376
0.07192545021929168,0.16788372875811983,0.15334231275854068,0.03698170166143799,-0.14729887028933245,0.08747251133150895,0.8263970939946123,-0.15244599155623825,0.3253540547562002,-0.46812128031245265,-0.5633805710092259,0.1251488178914431,0.2346984659552699,-0.4021895914921628,-0.1196757996821903,-0.1796094131794079,-0.10600721467782133,-0.07252412383886078,-0.0351478624523303,0.022022846175552693,-0.45818979259468895,-0.1555851039496929,0.3358764226477187,-0.6615817658844414,-0.3089962917567797,-0.40631323867836505,0.29484546612479,-0.020823979905202097
-0.4733021115871874,0.4753842541012233,-0.33399675382805805,0.2956307273073435,0.1633383095282989,-0.07068465035614532,0.08296075885271122,0.27621155367852,-0.7631214571990789,-0.1160342623634555,0.035805114774233565,0.24736120720648302,-0.04067216152236957,0.03825048240320385,-0.06104462354163642,-0.1115965996401121,-0.3095499654949474,0.29355615130237794,0.2573215134476772,0.33315424358223017,0.19611182942118813,-0.2190353472831475,0.030541046684883635,-0.5915575323605619,-0.6587214676545631,0.3268180654178933,-0.11393246088528451,-0.11503297384211783
0.44121787744510776,0.4173077272166759,0.02559313606025174,-0.24197585003588729,0.30826567613642863,-0.19348875590014067,0.38632152662619257,0.20058970612685895,0.08314025677768243,-0.11767237771936553,0.2986026668409066,0.07514472219106369,-0.6672248037951003,-0.05363597149252263,0.11332496812353855,0.396535539222411,0.025887224556577118,-0.15470330418111666,0.3633011863316695,-0.13298290508883148,-0.6080792506697477,-0.07784018595041751,0.05264229142776536,-0.7149939048542361,-0.21165200840956105,0.09185495607795124,-0.12925504697175505,-0.1017026543386634
0.2280444767548787,0.004343963198579455,0.0013320891700794543,-0.1596360659847106,0.3980566394355276,-0.4676784555609956,-0.15553359576041667,-0.13904917154361016,-0.35508292015468923,0.1758099847175303,0.14896472828475776,0.4584245110046763,0.469833690851479,0.6029038462570472,0.140080869887851,0.2010170881273564,0.21010284709690838,0.5499707391843012,-0.09646549511673677,-0.283591861859025,-0.1830513774374362,0.46671671998946695,-0.12568715951171663,-0.2613125638046201,-0.4494042703104037,0.023795167324445192,-0.052077599326903784,-0.06345765675145837
0.44341526635876416,-0.22896300215368226,0.5069716032956576,0.07429563847863363,-0.15009475448895757,-0.6527823523764238,0.09967362343244057,0.5051121555438889,-0.2803729779960926,-0.07458554655364635,-0.27501424587792234,0.06512116456118135,0.2798561529552992,-0.20238741974038282,0.984052307297523,0.2586914318811693,0.550201941924224,-0.006434661959450414,0.2069128466971216,0.11416599961112374,-0.20667890803752728,-0.1070050644703492,-0.7438563678781288,-0.06711711741429027,0.37420193843411265,0.5287357379244018,-0.02665834969665215,-0.4477849665465564
0.08859441314867868,-0.047554793797473294,-0.9671350242279687,-0.48498058154100515,0.06768050080507516,-0.34258008137525636,-0.25339132521266955,-0.14498385904137226,-0.6109270483486428,0.3406391664201105,-0.10886463480001056,-0.03744392224166057,0.08602617869494752,-0.32931088931509994,-0.7601227837780026,-0.6850284960516961,0.5030087226929827,-0.18874093613978216,0.016661110907869224,0.04588737095903859,-0.36520488587282207,0.6164462238420239,-0.31753528107619233,0.20693562136453497,1.4623371645709853,0.3891009963143904,0.0848093482500584,-0.10556971391713312
-0.09131522905043281,0.3689924946673187,0.5266168145904166,-0.3561146036474209,-0.6342887984402166,-0.5889570623398589,-0.5123949346179076,0.1695391333704133,-0.0061872481377619176,-0.6481453258217128,-0.5825007619333044,-0.5764811903942223,-0.0556013642555113,0.6989159179325135,0.25325563161791775,0.30650781376642666,-0.5765779568255472,0.019247762722005724,0.3258080884233047,-0.4697599747287568,-0.2978263324413248,-0.11403412503172522,0.16099557469772932,-0.028538656300332036,0.06414744723569298,0.17943614426459595,-0.24418406471883541,-0.1727789042097828
0.23625571333713122,0.22172276460374052,0.8617554463711228,-0.054607148819625834,0.022564849798453714,-0.04080550331064149,-0.21782307611375917,0.08842145167142551,-0.5260729880827636,-0.13683510093335893,-0.1103902439401767,-0.19242906922849862,0.5198800188755819,0.26264359958315076,0.06004446622893168,0.011261160480300424,0.22388236224019847,-0.29532150134709684,-0.4355620078324573,0.12300370328378679,-0.018084980281275895,0.240558150357551,-0.4654974810684705,-0.3444480290228482,0.2862948596154016,-0.41822090931471917,-0.0622381308264793,-0.12981782003195322
-0.04219090664376684,0.26960125145842645,0.08630844193244898,-0.5946576320923017,0.564928566258891,-0.3296487343294248,0.3062954288455764,0.6787906624899802,0.28542396045457014,0.15858540773962349,0.4713616750704733,-0.4931529817123529,-0.44585790553639393,-0.2623566702265273,0.06572777551630625,-0.3041530706620397,0.1124076665866085,-0.4935886990416166,-0.5591057711287368,-0.08299678037945506,-0.09628106134303542,0.6430417314142755,-0.5209533409200034,-0.21956793744285538,0.07779166009670964,0.29606151113644674,0.12822831997900258,0.6660630087211459
-0.10614883217912095,0.06969309628319156,0.3318808865661221,-0.260040984148058,0.41360573531005546,0.3160888832748557,-0.14821652661731277,0.004565387377342444,-0.052339755965910104,0.03162490264083885,-0.15413552080706103,-0.9111702820356556,-0.5963623938186752,-0.15884322420516728,0.32617173840154773,0.09147928183098318,-0.14751626138194782,0.23822744909538368,-0.06023163027646538,0.13632322420598172,-0.04867883591585104,0.47231031021077496,0.2527901339932923,-0.32646254497918387,-0.2948931170887848,0.028777930320063063,-0.060106510718672825,-0.44608623783637846
-0.3149636360709683,0.1604639692410044,-0.3892206113675987,-0.5637052294429243,-0.8502783190584454,0.2375300568442685,-0.2957039170218499,0.46263046168508043,-0.6134575581924315,0.42017628189820566,-0.3466077192099224,0.4665195226517893,-0.3122993610539331,-0.5183459238133739,0.18533913632436494,0.5887918891582149,-0.09549780178237961,-0.25572583980164654,0.2860897721628378,-0.3832814653227574,-0.32616557203085167,-0.1857858344715238,-0.05214988911246399,-0.6923502653549553,-0.08371306872320194,-0.3524145794619314,-0.08705534546425531,-0.17481967877815596
-0.4247260774322227,0.4820112216663504,0.10975407675177302,0.03887143084884337,0.41899200470656134,0.6120135263925527,0.37047766533989335,-0.47937894405122333,0.22943818092447976,-0.17744980773623503,0.1869650600140245,-0.2568745761416251,-0.3514865540430868,-0.031079938832451273,0.04906841383615847,-0.5691788650318403,-0.8454245952361017,0.10229188331781049,0.9086704552537541,0.412989368032983,-0.41909138720856737,0.0846992356529902,-0.12977137158329594,-0.20208538275300203,-0.5515343131085109,0.2624778284966242,0.4537675493278533,0.07828825350306956
0.5909151531314557,0.3946654178320106,0.05676239633007399,-0.41274049169082366,-0.009182299727910626,0.08931644697293048,0.46489277257289563,0.2090198859720953,-0.5224344756876407,0.13867413367617432,-0.3864164242808748,-0.2526006316190627,-1.1749061472748366,0.6178195001100868,0.6202427217231052,-0.14269375616811988,0.002901739252855622,-0.34209156255032025,0.32035300009515766,-0.14297400179548322,0.5927278737973255,0.4393764708245615,0.35035203100556345,-0.286614513644489,0.38043253576284675,-0.023182957412407786,-0.039418244182496315,-0.033789390524232576
0.2360895955596459,0.37355718204859223,-0.1798079528204671,-0.2710759841554572,0.2626911839568958,-0.09942860378858563,-0.025777212289025027,-0.6207695958888435,-0.034096148266790575,0.13664353187414832,-0.3680618280152197,0.23851477919677705,0.300347192317071,0.09451276033584236,0.18633117501208588,0.17926646182630118,-0.12639618680509368,-0.17447878530474686,0.06807290417914327,0.127294200360172,-0.0916115273436742,0.13536702612694515,-0.36638557327648064,-0.860514943872533,-0.1242092445935103,-0.31352827467148053,-0.47886499775274755,0.5700326788329331
-0.19038002821615854,0.3462936276900079,-0.1873312349660017,0.6100472598196311,0.13594853465632378,-0.05153165008235056,-0.2957059900987201,-0.36109868171938375,-0.3712162252335811,0.9495093508109778,0.011570758883146218,0.3583981684725085,-0.4164159322965267,0.0004324629264180619,-0.5226076360906328,-0.3022923468544009,-0.1602453744362617,0.3485778507418195,0.007144948681218831,0.6306823797394073,-0.29180918079395685,-0.8045138082712091,-0.36199737552504796,-0.8062712520976577,0.14201238607594752,-0.11454186578054792,0.5016249168993955,-0.25442955431740694
0.04423720887089787,-0.5940721887738425,0.9443419551942277,-0.7159278010094166,0.2304266638023481,-0.31058470707133956,-0.28098627257514136,0.5762790752329682,0.2306017306517892,0.48518834325625504,0.6232825032941128,0.05101425236862818,0.36457915005883873,-0.01977734813437241,-0.9212289673130816,0.1095310336278631,-0.16069482349807349,-0.3294375604045707,0.3645542587872452,0.46776431562453274,0.49515345193759747,0.15205342770788366,0.8566763968482493,-0.08270950868678233,0.25234536990038603,0.27951389048673436,0.3676144362174968,-0.8581762932228322
0.48162403272130005,-0.44047258042975346,0.18718314264434877,0.0330461573483141,-0.1350159964373101,-0.062287908326525095,0.11779519664515319,-0.2555819715504408,0.2916431653856817,-0.0953668722197978,-0.1522788655374867,0.19206313816429307,-0.23878111285992792,-0.20536345452323693,-0.9367204693653969,0.43516302521510075,0.2056069088245272,-0.48229820477914614,-0.46717658682674945,0.19785346692920067,0.2623776614234239,-0.19096937224005175,-0.3693764724456604,-0.015394218484571894,-0.01426260404195745,0.49642040650721936,-0.3442879374702456,0.05803749547083552
0.16577179155740554,-0.26860529155728724,0.04266559199146685,-0.2749935821401712,0.36939499257751535,-0.33233750518159744,-0.3659081434208588,-0.16416028576170413,0.09318781609828089,0.2506436118751725,-0.2105612900957972,0.2572830541016975,-0.4720941138689101,0.4993106894527743,-0.5663168146885623,0.969400491337615,-0.15371161384039772,0.5089377909988241,-0.41904577872376625,0.2229129816460412,-0.016284598534663377,0.1763025827110084,0.10768280902804393,0.35142821416851505,-0.17304577371407837,0.06441356557968951,0.6034920111823862,0.848629848900556
-0.5293921597122742,-0.035462753767330824,-0.34886092712447864,0.055711442823131355,-0.3695599757003593,0.05136672713886604,0.33164673252392063,-0.681049568424506,-0.4867250611159012,0.2710729547441022,0.018177156635055737,0.14962596567645203,0.7580189670057349,-0.1299154990121934,0.35497044120193794,-0.5802106187225559,0.118464590170886,0.21358063195538643,0.13047237669430808,0.3304092357564954,-0.5086874852942337,-0.09672120476856756,-0.14531298581349084,0.985606765331243,0.38828313493348554,0.38320893187336413,0.49148887392762836,0.04178015633207094
-0.26975070639989274,-0.44945190598066753,-0.6550996242768963,-0.524335179040141,0.2927521919396774,-0.16973373900156352,0.2579500614753965,0.1316641341480519,-0.3705118324246499,0.053867725339421815,-0.3509424854206086,0.31097371121294853,0.7869380944660656,-0.01496544764927328,-0.24731096135059225,0.056478354309407376,-0.4126075024832605,-0.7412251426271488,0.17521398432949012,0.01608713010305843,0.032953078316757,-0.6562428089197917,0.25009498764601257,-0.07673594077421352,-0.3164486204019236,-0.06870272339545484,0.3018124780498189,-0.5290490007499702
0.09602359573679604,-0.22861703242388173,-0.031921937622078074,-0.48630362455664977,-0.20344300667858076,0.45904954063299835,0.2258828648711873,-0.35564037326608605,-0.4585663310675232,0.22275067297775983,0.27013567596784654,0.5498261561968989,0.20327104978377417,0.04330461923816976,0.6069011070942035,0.04277303046889812,0.9212252131506382,-0.1491575000047931,-0.47615143981395175,-0.5365956490787076,-0.1951347436210076,0.00864329964991517,-0.18317961996085325,0.2601035949672259,0.016647253454700285,0.1784978940408211,0.301630913938716,-0.23685755116116333
-0.2870684007672558,0.3169374561758545,-0.2823458721865478,0.22268732937976432,0.22318970612708863,0.20538080032812983,-0.4380094256289587,-0.012733267401033772,-0.04108779608981111,0.025787771162972956,-0.14530766694713462,0.14647982484113345,-0.2965654340838199,-0.059129149804709485,0.15107949813698124,0.3354813813184598,0.24063592901847358,0.3577758148413142,-0.02587069180100613,0.44576056870182384,0.32425430203479016,-0.41503267916339476,0.06662434076028839,-0.1470666856075188,-0.15627199626416163,-0.35699649197092764,-0.5913470205147469,-0.4110665819843327
-0.6677621420379644,-0.02296444135349441,0.4800323669759369,0.29622943403791135,0.2681426163718142,-0.38447386367000225,0.6776291032207048,-0.5580823936385984,0.23799188241045038,-0.20835898357657026,0.4239667598329379,-0.3471727786253748,0.4556730654999919,0.5299994104063585,-0.22391887602330876,-0.16393238917990402,-0.17207618916501627,0.6249361256847772,0.003660987724270316,0.2834484172298308,-0.09219206194226984,0.5884195388901173,0.5274625060641026,-0.6210236527403135,-0.6226601531223114,0.3821303776332568,-0.1124683095469077,0.2643168393734276
0.5569083203657523,0.4496170333567545,0.9043434315384313,-0.23412734795095594,0.23532177025278553,-0.37918936584646956,-0.023907382960480103,-0.27044682424266503,-0.1429489255956965,0.34775536193282247,-0.2842842077469932,0.21934595459855832,0.49142109538123124,-0.3568252015049835,0.17204583912476548,-0.3382740610879228,-0.27693188444365213,0.753690266692147,0.07672858871324499,0.49639540616071165,-0.13769028326830815,-0.227748015189636,-0.6251591544085582,-0.2711346193605396,0.19562709092690905,-0.10013629448351342,0.4494501566279131,-0.17666566417301
0.39448606655472523,0.554777710309989,0.45364109681679693,0.22677797943242167,0.6553963353853648,0.290841879795237,-0.4625845344671529,0.865506942679856,0.500309996911234,0.10399227018223559,0.3467250214473333,0.05304838904013148,-0.04233178432687214,-0.3541234163091765,-0.2880837914863816,0.291503518515277,0.610195168918534,0.45815553692085914,0.21015759137456658,0.3605615144791842,-0.09310031037270482,0.10313131216350474,-0.04534600409839838,-0.1497367964034203,0.15006466346293368,-0.7318289861031988,-0.08559823309014829,0.2158099181953887
0.0026017031376144094,0.5554926149407421,-0.7212370913156206,0.4656007994664252,0.787136110191219,0.1427578606412208,0.3438014219611953,-0.30058596695273704,-0.09018003463538643,-0.13426306290272058,-0.16564815087484552,-0.01337962652476421,-0.18839908800007366,-0.6751078516480037,-0.36310075653628443,0.27179391923493385,-0.148732504955311,0.28789870870113093,0.6334184918838195,0.49230243454757733,0.7549078830665386,-0.2547570799834929,0.5926649309016111,-0.10126413506339565,0.31812876314489824,0.057916685207886634,0.749192791785785,-0.8041600859168921
0.37703284172781204,-0.040153351910692456,0.0014130667231195776,0.09989501377086502,0.08875299747611413,-0.5678577629026709,-0.14471789503234767,0.30470293288902334,-0.8466878785241222,-0.07867909671004167,0.10940797573056071,0.13555131559905842,0.2749738809335232,0.09750672544434981,-0.5506358836177323,-0.10869759534181098,-0.17424994708533065,0.32451562672065054,-0.44931865353279027,-0.19729594391605323,0.806398787206262,-0.241882703114846,0.2578700550524229,1.1490688062594765,-0.20452102078198686,-0.9294501044431962,-0.10477432064024765,-0.16728912537620289
-0.2047556069462356,-0.07226478757096655,0.43225590959207266,-0.025770511159834947,-0.1983126355268245,0.4496097844709639,0.40891752476420984,-0.29774429517775797,0.6757800731265087,-0.39539942652066296,-0.33015147819601315,-0.8699973231034042,-0.5222669602462878,0.10032321109061906,0.06131070197913377,0.46823186132607236,-0.5148631143321328,0.7907238476799188,-0.3566041261984332,0.04589756244742757,1.0911850621465056,0.6559827498138847,-0.12037052657583089,-0.8523843695380311,0.4097665256623119,0.44659296917600905,-0.18980432314939116,-0.2292482265258442
0.7185649083278083,-0.1565769442996055,-0.62913795285373,-0.1717124922364127,0.5353423440834076,-0.17721619269911848,1.136379578243764,0.37039328918594044,-1.0432743778046667,0.16204823430420248,0.8807266391124758,-0.09715212522563721,0.2449604840383184,0.038964032363106,0.37351084853623684,-0.008768445648485336,0.3317871228197317,0.45080779582512165,-0.278427316112455,-0.37078123391209916,0.14464038187132744,0.1734006055324601,-0.34051092738992733,-0.24759768838959537,-0.22980118044716985,0.5794271856017824,-0.2831511306491771,-0.631491677578768
-0.32340332702598695,-0.05225448187175365,0.3803983685349851,-0.5787062972080634,0.36631618637139574,-0.649874472499684,0.5651367993492337,-0.10801774105274596,-0.46669043845412833,-0.019058236723383273,-0.037271201822361204,0.4810177195513331,-0.3177211482440694,0.8205876516082827,0.6106209600809194,-0.2919980675607151,-0.548104981231712,0.27137244909673786,0.013052794870783181,-0.9460806168518623,-0.5321439593520995,-0.10424496241435881,0.26806429527543185,-0.2682170870691711,0.18783676702982727,0.5234596823381943,0.12593036388851173,0.05095335257851209
0.9322352331950224,-0.07456514822866135,-0.4606358647225989,1.0394168575240568,0.3867876775090585,-0.4672054200643146,0.09102008504835377,-0.32187753512253847,-0.43945371587646875,0.04402905744632338,-0.5536158452507551,0.7803667707443612,-0.08257653834692456,0.799924191338552,0.17195920281352353,-0.5396971550745882,-0.4812114131374656,-0.2609800769044225,0.3978795266864587,-0.07552231383132044,0.20359472713922155,0.16132419028316589,0.1766071309883669,0.0022174196258069557,0.03710757385762703,0.3734480310293281,-0.08186275389650427,0.20306689641270126
0.26248375256586237,-0.0767718529345977,-0.48382614662599394,0.19385955245319403,0.5600148226789996,0.37865346995395766,-0.556028670921594,-0.3783409743114271,0.6153826722295827,0.23322225487880677,-0.010100534731228133,0.35059171334021577,-0.7181748769928243,0.0064356343209699485,-0.0026015651834194985,-0.031300468284601736,0.3919178776191596,0.5185217709246975,0.1670110313068015,0.877428942817856,0.6601708573287038,-0.6323045485645131,0.4717801245582207,0.4125744654590754,0.22505186210858039,-0.09332938794981213,-0.16825714815956172,0.09503015741156103
-0.09808019706151444,-0.3235060858249347,-0.34160635467022105,0.5765949373727811,-0.2934883365116967,-0.5339612721479072,0.2637352192653079,0.0749190467971208,-0.3175283605940106,-0.07258779347646493,0.03836876319131741,-0.6062453825281121,-0.24556505846846413,-0.3285694660283986,-0.13361368282753242,-0.11838691600547038,0.14429327245273293,-0.3896411425696605,-0.47826904225405986,-0.5314610873105323,0.060437588611819255,-0.6487778696548854,-0.028634566076299748,0.2857308109446227,-0.2417264411715199,-0.07698504475240672,0.7209729253490345,-0.04537668505811109
0.42323719259733733,0.2007471416810244,-0.459401966995876,0.48927408569758185,-0.8239342749712355,-0.15911027881807197,0.059172765226880135,0.2955195875247197,0.13440074803263136,-0.0016023121160180641,-0.02146906033756506,-0.5859998078385348,1.1588487166949983,-0.14696586741990678,-0.7412951049535775,-0.16899293805455043,0.5285592316844572,0.21427741794555674,-0.17903280785701403,-0.018605631654052716,0.11351540668883543,0.2827052228445579,-0.31205210675959555,0.2589090968930432,-0.26185245253527983,0.13416050972516957,0.44566240913619376,0.042599849533891565
-0.2418315006878522,-0.21044939271187804,-0.20199294695234774,0.8782026927531948,-0.7202498677011602,0.0867348234044806,-0.6347681051816169,-0.5333438310889078,-0.2062299812728042,-0.7583978426814296,-0.1888330824813319,-0.29279028110789423,-0.08707784603267218,-0.13587234580435079,-0.5617733080516876,0.21370921206283722,0.39828121698993507,-0.3082727616705978,0.18974691689640907,-0.4391037480323278,0.07417379616087698,-0.0841443166509208,0.779970448133962,0.3819860376265171,0.13461488406188063,-0.32855372989241305,-0.4191341302404201,0.47685354322590306
-0.5699941824471508,-0.6089953227086496,0.20978076384019806,-0.2497096488255104,-0.07816033152061022,-0.640406081896043,-0.6824847480990153,-0.3192339162971694,-0.06228512935280602,-0.2132574768828004,-0.20502809080765988,0.23561325636152283,0.33044206587084435,0.6479578515598515,-0.09423636032433547,-0.21366609428197714,-0.3017935240795725,0.8711974555535967,0.0050776182791684174,-0.7380548561795871,-0.6987992632531156,-0.45484856237739507,-0.03993283370551757,0.19173239278612061,-0.04733064683794764,0.40053842586717864,0.4318156487060581,-0.08821869584759698
-0.222485377680744,0.0972943519792843,-0.3129958874556197,-0.35287018555963473,-0.12072827066303438,-0.0076206422623427625,-0.1901557613176373,0.27745339465811086,-0.06658807612484645,-0.3618391836471561,0.6443182006782011,0.1427341426785675,0.4938866365594147,0.24909030951243014,-0.8309107332830311,-0.43303604890291664,-0.7269828911780472,0.00762351326474703,-0.3578819509916065,-0.2769775379109403,0.13474221742164327,0.11546631244848296,-0.6496513902405214,0.249619033452604,-0.3787327292883357,0.14851028172617356,0.15328239799679608,-0.04817525018532579
-0.7011393365402888,-0.5736114036622115,0.0027293275551942696,0.42575537561652166,-0.9190258664060946,0.4030363970748036,-0.2610354220605257,-0.09504361412611263,-0.3043700566090301,0.24217233578708292,-0.30899956566372927,0.2305923026573668,-0.31148727966183093,0.29074019394388395,0.05764243316217514,0.43477696884505296,0.2850041013889352,0.0679103877068802,-0.7337952871091485,0.7618647450920591,-0.17905422385299316,-0.5799343471940186,-0.3403738506267113,0.19648369009056124,-0.01660417970361118,0.15059622768326136,-0.3109577162255315,0.14941577372315012
1.1996247640975828,-0.4354763336537499,-0.5656584272686398,0.07945698770091145,0.2141333104301222,-0.9327395753393242,-0.09209910858862153,-0.7669080668970673,0.6746573579455937,-0.0987360138031918,0.5073019527684005,0.8845374196962306,0.07812937803867505,-0.30511020484440726,0.015345440217384135,-0.36932405860637096,-0.24593605140969926,0.607414381929423,-0.4332750587847762,-0.1533846793286767,0.41645327715950115,0.6888512866953336,0.11173625094658195,0.09601347542950775,-0.4410838761551266,1.1480849603761245,-0.17288596470848164,0.06476753261702609
0.3597806523601296,0.6712789447130527,0.23701676111338868,0.35731849330196025,0.2924644522602784,-0.4184652883715207,0.5341386912942876,0.4479771288270229,0.039619592908333584,-0.32584390786130146,-0.10137255345434018,-0.13683234067656752,-0.2969553292670054,0.4153818202879728,-0.23921255613656153,0.2962457085603285,0.4986398882650519,-0.12228922587388442,0.12971853526395832,0.6229340890618218,0.716591527014906,0.5754639351483128,-0.16768813786731976,0.7541974704840082,0.23180152293271206,-0.4505369534896839,0.1671280107222952,-0.0251138491955381
-0.24124732748961314,-0.760276780386531,0.4080998915972292,-0.14850220506476483,-0.011279108927975876,-0.47733447347890445,0.17524979101921762,-0.17708744756275052,-0.25588354563311216,0.09066000431487792,0.01444232600081628,-0.3201529386708861,0.6765551976134844,0.37747375589128934,0.18167951938558585,0.14775631574607423,-0.09158280747822346,0.09801550383826153,0.251061368436178,-0.22821020038542614,0.011062721891963848,-0.20139234678806314,-0.6801186588000186,-0.20474242499378986,-0.2659942439744033,0.7205724536528783,0.600373779678379,-0.1644084115574739
0.48474396966480965,0.2939162382215294,0.21637788629439494,0.7487125220042083,0.1138912522298095,-0.12837192617708099,-0.6409963716714213,0.2405584632290106,0.7579533423052405,-0.23148906764541935,0.5911953719845424,-0.061941442402667565,-0.35313340608151156,0.20623751778953314,0.620208979524215,0.07577209213177749,-0.23754801994023883,0.005481082316262077,0.14862643827788952,0.2523543395064847,0.8668188024493542,-0.8921533309452518,-0.3416338316623949,0.4742230259197026,-0.7275379036479077,0.25129545003917864,-0.5187670629727283,-0.14527911451375514
0.121316529638154,-0.6342468928166212,-0.3039916988157217,0.04244765524093675,-0.4087585011420209,0.0006425610694039209,0.2172707311798039,-0.5264064356436033,0.5067961276681535,-0.03133777294092353,0.209907410459372,-0.3818904516146938,-0.1914116014259482,0.6144735204321701,0.07724933285843348,-0.2776322424970154,0.14682534975542746,0.3140560011799541,-0.13617807309792584,-0.4480088267259616,0.1827938856986586,0.26850022593591677,-0.011281087047906684,-0.19850088936433427,-0.10637768993421023,0.5334017730870351,0.07282676515278713,-0.3340043505394497
0.11649163223576477,0.2958400026219856,-0.03700587574383527,0.2003061311834731,-0.5389758787993177,0.2992198555628623,-0.02416979719158414,-0.02839629407890162,0.2748588387850351,-0.33224568412849736,0.5789440516492158,0.38465939239633185,0.055454601018176564,0.27069563160228416,0.19339793833967628,0.2450208286509478,0.22303975750115781,-0.038738517021688866,-0.2158476069512331,-0.406495187919578,-0.08208370435779583,-0.04281332322745564,0.25486789470039783,0.9831184162643739,-0.3105469790675574,0.1451552461710684,0.0836683762175668,-0.05198618413014838
0.04530391615186305,-0.023244232060027622,0.10690666686300752,0.6498921786798286,-0.6837158940233341,0.9656305997051768,0.398712523839467,0.2579845711708684,0.02066382249725068,-0.353487877249294,-0.2541899752811775,-0.3306344745549393,0.1557725637089167,0.28454538865982804,0.5834471499201722,0.45108800333374244,-0.0855495346530443,-0.697444211075096,0.7844588891717494,-0.5130630970392556,-0.23057013256796613,0.5241311552086049,0.05410462929770867,0.16864212727191624,-0.22375880758302719,-0.055725382835517055,-0.7763070588942627,0.5683110145864881
0.0856157358042546,-0.7885827095292357,-0.5473094216930957,0.11686674912823226
0.2766729898535453,-0.23839272065523343,0.6040966229290415,0.2373183119726904
0.9156831720751107,0.016399871547646782,-0.43382326386685244,0.7836543766845891
-0.6034069771133019,0.3103638809261685,1.0215412160041086,-0.15846754018600595
0.21242565069863845,-0.5417204137246686,0.21054860123373823,0.6822625126589078
-0.04989085471908821,-0.6217963042703221,0.08595007745674021,-0.15547435658974135
-0.27832447997227516,-0.08559626974460233,-0.2958465595348483,0.0649448868680615
0.31499336633061376,0.5274037920668437,0.2934556288639562,-0.007091667906430599
0.460380768723231,0.09735104317258181,-0.04714700920034676,-0.2452397465757774
0.20759445653892286,-0.5226481252340537,0.3296351964877872,-0.35707858942695836
0.8306386470514883,-0.050648319326674934,0.26986118485312155,-0.28775560397906597
-0.3364213025543,0.5066167370279041,-0.5770231083262466,0.15383814119512
-0.11801845663051472,0.2445471067312545,0.21272506980402645,-0.08363495453971174
0.5392203170500773,0.02076075078826561,0.517290141784608,0.3033549136147155
0.6066968447291319,-0.2305345739030854,1.08571744758008,0.11408975605652183
-0.5910848770745979,0.14671738396040218,-0.08258918342382295,-0.44472800973572824
-0.541825173005621,-0.026290509615750624,-0.1758367636080584,-0.1805667437585149
0.8399165459939554,0.561533896950938,0.13197249511954007,0.29410066805939317
0.2965560622459726,-0.3511638499992782,-0.06303718960362532,0.8390923846539611
-0.2566016870819003,0.0681119118589144,-0.010505955904787208,-0.23521119467359292
0.29543577380354696,-0.13500020227125406,0.19195895853824818,0.47661718738330905
0.35922020243549685,0.22021436679323914,-0.35761330659610335,-0.20274620463154625
-0.23546897012226023,0.03581513632627558,0.3423386898573757,0.24707859043837135
-0.21176638833900344,-0.010581593691341514,-0.5141423286797482,-0.6269026126505407
0.32689029394018243,-0.6723110620744904,0.2979333498689672,0.25952830818819084
0.19401292205317155,0.4435110095538504,0.08248646680953592,0.20022601869768497
0.014681994263237555,-0.526412408724834,0.5722646865632525,-0.18152477868218836
0.06390071418438635,-0.802401436215734,-1.0381821628973085,0.8994040611726636
